<?xml version="1.0"?>
<opencv_storage>
<cascade>
  <stageType>BOOST</stageType>
  <featureType>HAAR</featureType>
  <height>24</height>
  <width>24</width>
  <stageParams>
    <boostType>GAB</boostType>
    <minHitRate>9.9500000476837158e-01</minHitRate>
    <maxFalseAlarm>5.0000000000000000e-01</maxFalseAlarm>
    <weightTrimRate>9.4999998807907104e-01</weightTrimRate>
    <maxDepth>1</maxDepth>
    <maxWeakCount>100</maxWeakCount></stageParams>
  <featureParams>
    <maxCatCount>0</maxCatCount>
    <featSize>1</featSize>
    <mode>BASIC</mode></featureParams>
  <stageNum>15</stageNum>
  <stages>
    <!-- stage 0 -->
    <_>
      <maxWeakCount>3</maxWeakCount>
      <stageThreshold>-1.3832818269729614e+00</stageThreshold>
      <weakClassifiers>
        <_>
          <internalNodes>
            0 -1 48 5.7550333440303802e-02</internalNodes>
          <leafValues>
            -9.6351087093353271e-01 8.8535034656524658e-01</leafValues></_>
        <_>
          <internalNodes>
            0 -1 22 5.7130604982376099e-02</internalNodes>
          <leafValues>
            -9.5707887411117554e-01 6.1775529384613037e-01</leafValues></_>
        <_>
          <internalNodes>
            0 -1 0 -4.4855400919914246e-02</internalNodes>
          <leafValues>
            5.3730785846710205e-01 -9.5785355567932129e-01</leafValues></_></weakClassifiers></_>
    <!-- stage 1 -->
    <_>
      <maxWeakCount>4</maxWeakCount>
      <stageThreshold>-2.0210535526275635e+00</stageThreshold>
      <weakClassifiers>
        <_>
          <internalNodes>
            0 -1 49 9.5504112541675568e-02</internalNodes>
          <leafValues>
            -9.4656109809875488e-01 5.9756100177764893e-01</leafValues></_>
        <_>
          <internalNodes>
            0 -1 26 6.9070011377334595e-02</internalNodes>
          <leafValues>
            -8.7728673219680786e-01 4.8891687393188477e-01</leafValues></_>
        <_>
          <internalNodes>
            0 -1 47 -3.3630233258008957e-02</internalNodes>
          <leafValues>
            8.3584380149841309e-01 -6.1505049467086792e-01</leafValues></_>
        <_>
          <internalNodes>
            0 -1 23 2.7219088748097420e-02</internalNodes>
          <leafValues>
            -9.4835865497589111e-01 4.4294109940528870e-01</leafValues></_></weakClassifiers></_>
    <!-- stage 2 -->
    <_>
      <maxWeakCount>4</maxWeakCount>
      <stageThreshold>-1.9895644187927246e+00</stageThreshold>
      <weakClassifiers>
        <_>
          <internalNodes>
            0 -1 46 8.4634773433208466e-02</internalNodes>
          <leafValues>
            -9.5891785621643066e-01 5.2380955219268799e-01</leafValues></_>
        <_>
          <internalNodes>
            0 -1 27 -5.6111946702003479e-02</internalNodes>
          <leafValues>
            5.7965594530105591e-01 -8.3935278654098511e-01</leafValues></_>
        <_>
          <internalNodes>
            0 -1 31 2.6473280042409897e-02</internalNodes>
          <leafValues>
            -9.4179123640060425e-01 3.6727306246757507e-01</leafValues></_>
        <_>
          <internalNodes>
            0 -1 3 7.7299354597926140e-03</internalNodes>
          <leafValues>
            -5.5856686830520630e-01 8.1177133321762085e-01</leafValues></_></weakClassifiers></_>
    <!-- stage 3 -->
    <_>
      <maxWeakCount>5</maxWeakCount>
      <stageThreshold>-1.6678141355514526e+00</stageThreshold>
      <weakClassifiers>
        <_>
          <internalNodes>
            0 -1 59 7.9649001359939575e-02</internalNodes>
          <leafValues>
            -9.0549659729003906e-01 5.6756758689880371e-01</leafValues></_>
        <_>
          <internalNodes>
            0 -1 68 -4.5306827872991562e-02</internalNodes>
          <leafValues>
            8.7841486930847168e-01 -7.1963101625442505e-01</leafValues></_>
        <_>
          <internalNodes>
            0 -1 14 -2.3532304912805557e-02</internalNodes>
          <leafValues>
            3.9945599436759949e-01 -9.0268421173095703e-01</leafValues></_>
        <_>
          <internalNodes>
            0 -1 19 8.4030672907829285e-02</internalNodes>
          <leafValues>
            -8.7901753187179565e-01 3.3017200231552124e-01</leafValues></_>
        <_>
          <internalNodes>
            0 -1 13 1.9340090453624725e-02</internalNodes>
          <leafValues>
            -6.1755025386810303e-01 5.2982574701309204e-01</leafValues></_></weakClassifiers></_>
    <!-- stage 4 -->
    <_>
      <maxWeakCount>6</maxWeakCount>
      <stageThreshold>-1.9011747837066650e+00</stageThreshold>
      <weakClassifiers>
        <_>
          <internalNodes>
            0 -1 82 -1.0491041094064713e-01</internalNodes>
          <leafValues>
            7.2093021869659424e-01 -8.9423537254333496e-01</leafValues></_>
        <_>
          <internalNodes>
            0 -1 80 -2.9078103601932526e-02</internalNodes>
          <leafValues>
            6.7040461301803589e-01 -7.2295242547988892e-01</leafValues></_>
        <_>
          <internalNodes>
            0 -1 45 -2.4387147277593613e-02</internalNodes>
          <leafValues>
            6.4931130409240723e-01 -5.1584964990615845e-01</leafValues></_>
        <_>
          <internalNodes>
            0 -1 33 -7.8706257045269012e-03</internalNodes>
          <leafValues>
            4.9084046483039856e-01 -6.6157388687133789e-01</leafValues></_>
        <_>
          <internalNodes>
            0 -1 8 1.2566755712032318e-01</internalNodes>
          <leafValues>
            -5.4283702373504639e-01 5.7736998796463013e-01</leafValues></_>
        <_>
          <internalNodes>
            0 -1 6 -2.1375924348831177e-02</internalNodes>
          <leafValues>
            3.1606650352478027e-01 -8.0753111839294434e-01</leafValues></_></weakClassifiers></_>
    <!-- stage 5 -->
    <_>
      <maxWeakCount>7</maxWeakCount>
      <stageThreshold>-2.1955273151397705e+00</stageThreshold>
      <weakClassifiers>
        <_>
          <internalNodes>
            0 -1 58 -4.6317182481288910e-02</internalNodes>
          <leafValues>
            2.2727273404598236e-01 -8.9868485927581787e-01</leafValues></_>
        <_>
          <internalNodes>
            0 -1 42 -1.0866915807127953e-02</internalNodes>
          <leafValues>
            3.1698912382125854e-01 -7.2634708881378174e-01</leafValues></_>
        <_>
          <internalNodes>
            0 -1 4 1.4684483408927917e-01</internalNodes>
          <leafValues>
            -6.2151545286178589e-01 3.4359917044639587e-01</leafValues></_>
        <_>
          <internalNodes>
            0 -1 70 3.3946260809898376e-02</internalNodes>
          <leafValues>
            -2.9776069521903992e-01 7.6356178522109985e-01</leafValues></_>
        <_>
          <internalNodes>
            0 -1 41 1.0412625968456268e-01</internalNodes>
          <leafValues>
            -3.1124413013458252e-01 8.2076632976531982e-01</leafValues></_>
        <_>
          <internalNodes>
            0 -1 7 4.4589204480871558e-04</internalNodes>
          <leafValues>
            2.6986286044120789e-01 -9.7779768705368042e-01</leafValues></_>
        <_>
          <internalNodes>
            0 -1 24 -3.0428462196141481e-03</internalNodes>
          <leafValues>
            3.9016202092170715e-01 -5.4646569490432739e-01</leafValues></_></weakClassifiers></_>
    <!-- stage 6 -->
    <_>
      <maxWeakCount>6</maxWeakCount>
      <stageThreshold>-2.2201514244079590e+00</stageThreshold>
      <weakClassifiers>
        <_>
          <internalNodes>
            0 -1 79 -1.6300028562545776e-01</internalNodes>
          <leafValues>
            6.7164176702499390e-01 -8.7818694114685059e-01</leafValues></_>
        <_>
          <internalNodes>
            0 -1 55 5.8513432741165161e-02</internalNodes>
          <leafValues>
            -6.8165069818496704e-01 5.3654682636260986e-01</leafValues></_>
        <_>
          <internalNodes>
            0 -1 5 3.2013364136219025e-02</internalNodes>
          <leafValues>
            -6.5448325872421265e-01 4.1076129674911499e-01</leafValues></_>
        <_>
          <internalNodes>
            0 -1 63 3.6339806392788887e-03</internalNodes>
          <leafValues>
            2.3310679197311401e-01 -9.0178644657135010e-01</leafValues></_>
        <_>
          <internalNodes>
            0 -1 74 -1.2340287212282419e-03</internalNodes>
          <leafValues>
            -9.5514589548110962e-01 2.4636365473270416e-01</leafValues></_>
        <_>
          <internalNodes>
            0 -1 38 2.2762026637792587e-02</internalNodes>
          <leafValues>
            -4.8530107736587524e-01 4.7433921694755554e-01</leafValues></_></weakClassifiers></_>
    <!-- stage 7 -->
    <_>
      <maxWeakCount>7</maxWeakCount>
      <stageThreshold>-2.0092484951019287e+00</stageThreshold>
      <weakClassifiers>
        <_>
          <internalNodes>
            0 -1 61 5.2165128290653229e-02</internalNodes>
          <leafValues>
            -9.0183442831039429e-01 2.3809524253010750e-02</leafValues></_>
        <_>
          <internalNodes>
            0 -1 73 -3.7550829350948334e-02</internalNodes>
          <leafValues>
            5.7634127140045166e-01 -6.2505060434341431e-01</leafValues></_>
        <_>
          <internalNodes>
            0 -1 11 1.3373248279094696e-01</internalNodes>
          <leafValues>
            -7.0716077089309692e-01 3.2792600989341736e-01</leafValues></_>
        <_>
          <internalNodes>
            0 -1 89 -9.0826572850346565e-03</internalNodes>
          <leafValues>
            6.1111563444137573e-01 -4.1406267881393433e-01</leafValues></_>
        <_>
          <internalNodes>
            0 -1 65 -1.4317745342850685e-02</internalNodes>
          <leafValues>
            -8.7503206729888916e-01 2.6914942264556885e-01</leafValues></_>
        <_>
          <internalNodes>
            0 -1 71 1.0016779415309429e-03</internalNodes>
          <leafValues>
            2.0884755253791809e-01 -8.8498979806900024e-01</leafValues></_>
        <_>
          <internalNodes>
            0 -1 1 2.7794795110821724e-02</internalNodes>
          <leafValues>
            -6.8741577863693237e-01 2.6995766162872314e-01</leafValues></_></weakClassifiers></_>
    <!-- stage 8 -->
    <_>
      <maxWeakCount>8</maxWeakCount>
      <stageThreshold>-2.0325334072113037e+00</stageThreshold>
      <weakClassifiers>
        <_>
          <internalNodes>
            0 -1 86 -9.1154038906097412e-02</internalNodes>
          <leafValues>
            5.3125000000000000e-01 -8.7175858020782471e-01</leafValues></_>
        <_>
          <internalNodes>
            0 -1 43 -1.5150774270296097e-02</internalNodes>
          <leafValues>
            2.1245703101158142e-01 -7.1844327449798584e-01</leafValues></_>
        <_>
          <internalNodes>
            0 -1 12 1.4228778891265392e-02</internalNodes>
          <leafValues>
            -7.9144436120986938e-01 1.8197278678417206e-01</leafValues></_>
        <_>
          <internalNodes>
            0 -1 84 5.0628404133021832e-03</internalNodes>
          <leafValues>
            1.6546545922756195e-01 -8.9503443241119385e-01</leafValues></_>
        <_>
          <internalNodes>
            0 -1 29 1.9374825060367584e-02</internalNodes>
          <leafValues>
            -9.5432919263839722e-01 2.0628613233566284e-01</leafValues></_>
        <_>
          <internalNodes>
            0 -1 10 4.6668183058500290e-02</internalNodes>
          <leafValues>
            2.0083476603031158e-01 -7.8147137165069580e-01</leafValues></_>
        <_>
          <internalNodes>
            0 -1 16 1.7242997884750366e-02</internalNodes>
          <leafValues>
            -3.0563580989837646e-01 6.2750971317291260e-01</leafValues></_>
        <_>
          <internalNodes>
            0 -1 2 1.2010382488369942e-03</internalNodes>
          <leafValues>
            2.6936042308807373e-01 -7.3312944173812866e-01</leafValues></_></weakClassifiers></_>
    <!-- stage 9 -->
    <_>
      <maxWeakCount>7</maxWeakCount>
      <stageThreshold>-2.0094833374023438e+00</stageThreshold>
      <weakClassifiers>
        <_>
          <internalNodes>
            0 -1 78 -1.1263363063335419e-01</internalNodes>
          <leafValues>
            1.3793103396892548e-01 -8.8496857881546021e-01</leafValues></_>
        <_>
          <internalNodes>
            0 -1 81 -4.9784451723098755e-02</internalNodes>
          <leafValues>
            4.7991967201232910e-01 -6.1713647842407227e-01</leafValues></_>
        <_>
          <internalNodes>
            0 -1 32 6.0200020670890808e-03</internalNodes>
          <leafValues>
            -8.4522634744644165e-01 1.6554644703865051e-01</leafValues></_>
        <_>
          <internalNodes>
            0 -1 57 -2.7746353298425674e-03</internalNodes>
          <leafValues>
            -9.9370718002319336e-01 1.3229645788669586e-01</leafValues></_>
        <_>
          <internalNodes>
            0 -1 15 -2.3567150346934795e-03</internalNodes>
          <leafValues>
            3.7138926982879639e-01 -4.6404275298118591e-01</leafValues></_>
        <_>
          <internalNodes>
            0 -1 36 4.2468577157706022e-04</internalNodes>
          <leafValues>
            2.3302914202213287e-01 -8.7574869394302368e-01</leafValues></_>
        <_>
          <internalNodes>
            0 -1 72 -4.3538142926990986e-03</internalNodes>
          <leafValues>
            7.2654461860656738e-01 -3.0086165666580200e-01</leafValues></_></weakClassifiers></_>
    <!-- stage 10 -->
    <_>
      <maxWeakCount>10</maxWeakCount>
      <stageThreshold>-2.0339169502258301e+00</stageThreshold>
      <weakClassifiers>
        <_>
          <internalNodes>
            0 -1 78 -1.4675697684288025e-01</internalNodes>
          <leafValues>
            4.5454546809196472e-01 -8.6384975910186768e-01</leafValues></_>
        <_>
          <internalNodes>
            0 -1 52 -2.8386808931827545e-02</internalNodes>
          <leafValues>
            2.7265700697898865e-01 -6.5171974897384644e-01</leafValues></_>
        <_>
          <internalNodes>
            0 -1 35 -1.2646807590499520e-03</internalNodes>
          <leafValues>
            3.2305127382278442e-01 -5.7630926370620728e-01</leafValues></_>
        <_>
          <internalNodes>
            0 -1 40 4.0829196572303772e-02</internalNodes>
          <leafValues>
            -2.7365481853485107e-01 6.9850152730941772e-01</leafValues></_>
        <_>
          <internalNodes>
            0 -1 21 4.3044323101639748e-03</internalNodes>
          <leafValues>
            -7.3460656404495239e-01 2.6042297482490540e-01</leafValues></_>
        <_>
          <internalNodes>
            0 -1 39 8.6914291605353355e-03</internalNodes>
          <leafValues>
            -5.1846563816070557e-01 3.8907408714294434e-01</leafValues></_>
        <_>
          <internalNodes>
            0 -1 56 1.4854720793664455e-03</internalNodes>
          <leafValues>
            2.2761547565460205e-01 -8.1886798143386841e-01</leafValues></_>
        <_>
          <internalNodes>
            0 -1 9 4.9742218106985092e-02</internalNodes>
          <leafValues>
            -3.3548244833946228e-01 5.0714010000228882e-01</leafValues></_>
        <_>
          <internalNodes>
            0 -1 87 -5.4473904892802238e-03</internalNodes>
          <leafValues>
            -9.6660619974136353e-01 1.7579446732997894e-01</leafValues></_>
        <_>
          <internalNodes>
            0 -1 67 -4.1942045092582703e-02</internalNodes>
          <leafValues>
            6.7036163806915283e-01 -2.9013881087303162e-01</leafValues></_></weakClassifiers></_>
    <!-- stage 11 -->
    <_>
      <maxWeakCount>8</maxWeakCount>
      <stageThreshold>-2.1846890449523926e+00</stageThreshold>
      <weakClassifiers>
        <_>
          <internalNodes>
            0 -1 76 -4.0794841945171356e-02</internalNodes>
          <leafValues>
            1.4893616735935211e-01 -8.7470108270645142e-01</leafValues></_>
        <_>
          <internalNodes>
            0 -1 30 2.3210423532873392e-03</internalNodes>
          <leafValues>
            -6.2118458747863770e-01 2.3178997635841370e-01</leafValues></_>
        <_>
          <internalNodes>
            0 -1 54 1.4376910403370857e-03</internalNodes>
          <leafValues>
            1.5086419880390167e-01 -8.8498520851135254e-01</leafValues></_>
        <_>
          <internalNodes>
            0 -1 64 -2.4777553044259548e-03</internalNodes>
          <leafValues>
            2.8056222200393677e-01 -6.0835772752761841e-01</leafValues></_>
        <_>
          <internalNodes>
            0 -1 44 -3.9164945483207703e-02</internalNodes>
          <leafValues>
            6.0271823406219482e-01 -3.1035652756690979e-01</leafValues></_>
        <_>
          <internalNodes>
            0 -1 18 -2.0150411874055862e-03</internalNodes>
          <leafValues>
            2.5331845879554749e-01 -8.0468171834945679e-01</leafValues></_>
        <_>
          <internalNodes>
            0 -1 23 4.7738119959831238e-02</internalNodes>
          <leafValues>
            -6.2336397171020508e-01 2.9800054430961609e-01</leafValues></_>
        <_>
          <internalNodes>
            0 -1 75 7.8234504908323288e-03</internalNodes>
          <leafValues>
            -3.2534283399581909e-01 5.8664983510971069e-01</leafValues></_></weakClassifiers></_>
    <!-- stage 12 -->
    <_>
      <maxWeakCount>8</maxWeakCount>
      <stageThreshold>-2.1166040897369385e+00</stageThreshold>
      <weakClassifiers>
        <_>
          <internalNodes>
            0 -1 62 8.9866295456886292e-02</internalNodes>
          <leafValues>
            -8.8212561607360840e-01 9.5652170479297638e-02</leafValues></_>
        <_>
          <internalNodes>
            0 -1 69 -7.2869405150413513e-02</internalNodes>
          <leafValues>
            5.8928257226943970e-01 -5.5985647439956665e-01</leafValues></_>
        <_>
          <internalNodes>
            0 -1 20 -5.0229340791702271e-02</internalNodes>
          <leafValues>
            1.8168467283248901e-01 -8.8504767417907715e-01</leafValues></_>
        <_>
          <internalNodes>
            0 -1 60 5.0590477883815765e-02</internalNodes>
          <leafValues>
            -4.1330593824386597e-01 5.1339018344879150e-01</leafValues></_>
        <_>
          <internalNodes>
            0 -1 17 -5.4821781814098358e-02</internalNodes>
          <leafValues>
            -9.7581368684768677e-01 2.1282429993152618e-01</leafValues></_>
        <_>
          <internalNodes>
            0 -1 53 -1.6666799783706665e-02</internalNodes>
          <leafValues>
            7.4147957563400269e-01 -2.8343760967254639e-01</leafValues></_>
        <_>
          <internalNodes>
            0 -1 25 -4.0388472378253937e-02</internalNodes>
          <leafValues>
            3.9060336351394653e-01 -5.8170926570892334e-01</leafValues></_>
        <_>
          <internalNodes>
            0 -1 34 -1.0637973435223103e-02</internalNodes>
          <leafValues>
            3.0374166369438171e-01 -5.8650100231170654e-01</leafValues></_></weakClassifiers></_>
    <!-- stage 13 -->
    <_>
      <maxWeakCount>6</maxWeakCount>
      <stageThreshold>-1.5584149360656738e+00</stageThreshold>
      <weakClassifiers>
        <_>
          <internalNodes>
            0 -1 77 -9.1590143740177155e-02</internalNodes>
          <leafValues>
            -4.6153847128152847e-02 -8.8029199838638306e-01</leafValues></_>
        <_>
          <internalNodes>
            0 -1 50 -2.8933532536029816e-02</internalNodes>
          <leafValues>
            4.7700041532516479e-01 -5.6309884786605835e-01</leafValues></_>
        <_>
          <internalNodes>
            0 -1 28 4.3167364783585072e-03</internalNodes>
          <leafValues>
            -4.6053639054298401e-01 3.9329129457473755e-01</leafValues></_>
        <_>
          <internalNodes>
            0 -1 66 1.5899271238595247e-03</internalNodes>
          <leafValues>
            2.1223306655883789e-01 -8.7046217918395996e-01</leafValues></_>
        <_>
          <internalNodes>
            0 -1 37 -3.9986858610063791e-04</internalNodes>
          <leafValues>
            -8.2192885875701904e-01 1.9813716411590576e-01</leafValues></_>
        <_>
          <internalNodes>
            0 -1 88 -2.2869831882417202e-03</internalNodes>
          <leafValues>
            -8.0869311094284058e-01 1.6400964558124542e-01</leafValues></_></weakClassifiers></_>
    <!-- stage 14 -->
    <_>
      <maxWeakCount>7</maxWeakCount>
      <stageThreshold>-1.7977931499481201e+00</stageThreshold>
      <weakClassifiers>
        <_>
          <internalNodes>
            0 -1 58 -4.6338438987731934e-02</internalNodes>
          <leafValues>
            -2.5688073039054871e-01 -8.9425522089004517e-01</leafValues></_>
        <_>
          <internalNodes>
            0 -1 42 -1.4348564669489861e-02</internalNodes>
          <leafValues>
            1.2298492342233658e-01 -6.3324999809265137e-01</leafValues></_>
        <_>
          <internalNodes>
            0 -1 90 -1.9730720669031143e-03</internalNodes>
          <leafValues>
            -7.6001870632171631e-01 1.2535944581031799e-01</leafValues></_>
        <_>
          <internalNodes>
            0 -1 51 4.6865199692547321e-03</internalNodes>
          <leafValues>
            1.3353994488716125e-01 -9.1306579113006592e-01</leafValues></_>
        <_>
          <internalNodes>
            0 -1 83 3.2294499687850475e-03</internalNodes>
          <leafValues>
            1.7384129762649536e-01 -8.0775105953216553e-01</leafValues></_>
        <_>
          <internalNodes>
            0 -1 91 5.7912762276828289e-03</internalNodes>
          <leafValues>
            -3.0657976865768433e-01 5.2560973167419434e-01</leafValues></_>
        <_>
          <internalNodes>
            0 -1 85 3.9817802608013153e-03</internalNodes>
          <leafValues>
            -2.6941400766372681e-01 6.3833218812942505e-01</leafValues></_></weakClassifiers></_></stages>
  <features>
    <_>
      <rects>
        <_>
          1 7 10 12 -1.</_>
        <_>
          1 7 5 6 2.</_>
        <_>
          6 13 5 6 2.</_></rects>
      <tilted>0</tilted></_>
    <_>
      <rects>
        <_>
          1 8 18 2 -1.</_>
        <_>
          7 8 6 2 3.</_></rects>
      <tilted>0</tilted></_>
    <_>
      <rects>
        <_>
          3 14 14 2 -1.</_>
        <_>
          3 14 7 1 2.</_>
        <_>
          10 15 7 1 2.</_></rects>
      <tilted>0</tilted></_>
    <_>
      <rects>
        <_>
          4 2 2 13 -1.</_>
        <_>
          5 2 1 13 2.</_></rects>
      <tilted>0</tilted></_>
    <_>
      <rects>
        <_>
          4 2 7 15 -1.</_>
        <_>
          4 7 7 5 3.</_></rects>
      <tilted>0</tilted></_>
    <_>
      <rects>
        <_>
          4 6 17 4 -1.</_>
        <_>
          4 8 17 2 2.</_></rects>
      <tilted>0</tilted></_>
    <_>
      <rects>
        <_>
          4 14 12 6 -1.</_>
        <_>
          8 14 4 6 3.</_></rects>
      <tilted>0</tilted></_>
    <_>
      <rects>
        <_>
          4 15 12 4 -1.</_>
        <_>
          4 15 6 2 2.</_>
        <_>
          10 17 6 2 2.</_></rects>
      <tilted>0</tilted></_>
    <_>
      <rects>
        <_>
          5 0 13 10 -1.</_>
        <_>
          5 5 13 5 2.</_></rects>
      <tilted>0</tilted></_>
    <_>
      <rects>
        <_>
          5 0 17 6 -1.</_>
        <_>
          5 3 17 3 2.</_></rects>
      <tilted>0</tilted></_>
    <_>
      <rects>
        <_>
          5 3 12 14 -1.</_>
        <_>
          11 3 6 14 2.</_></rects>
      <tilted>0</tilted></_>
    <_>
      <rects>
        <_>
          5 3 16 12 -1.</_>
        <_>
          5 7 16 4 3.</_></rects>
      <tilted>0</tilted></_>
    <_>
      <rects>
        <_>
          5 4 3 9 -1.</_>
        <_>
          5 7 3 3 3.</_></rects>
      <tilted>0</tilted></_>
    <_>
      <rects>
        <_>
          5 5 6 9 -1.</_>
        <_>
          7 5 2 9 3.</_></rects>
      <tilted>0</tilted></_>
    <_>
      <rects>
        <_>
          5 9 10 9 -1.</_>
        <_>
          5 12 10 3 3.</_></rects>
      <tilted>0</tilted></_>
    <_>
      <rects>
        <_>
          5 10 2 6 -1.</_>
        <_>
          5 10 1 3 2.</_>
        <_>
          6 13 1 3 2.</_></rects>
      <tilted>0</tilted></_>
    <_>
      <rects>
        <_>
          6 1 10 6 -1.</_>
        <_>
          6 3 10 2 3.</_></rects>
      <tilted>0</tilted></_>
    <_>
      <rects>
        <_>
          6 2 12 15 -1.</_>
        <_>
          12 2 6 15 2.</_></rects>
      <tilted>0</tilted></_>
    <_>
      <rects>
        <_>
          6 5 8 5 -1.</_>
        <_>
          10 5 4 5 2.</_></rects>
      <tilted>0</tilted></_>
    <_>
      <rects>
        <_>
          6 7 18 12 -1.</_>
        <_>
          6 7 9 6 2.</_>
        <_>
          15 13 9 6 2.</_></rects>
      <tilted>0</tilted></_>
    <_>
      <rects>
        <_>
          6 8 14 8 -1.</_>
        <_>
          6 12 14 4 2.</_></rects>
      <tilted>0</tilted></_>
    <_>
      <rects>
        <_>
          6 10 15 3 -1.</_>
        <_>
          11 10 5 3 3.</_></rects>
      <tilted>0</tilted></_>
    <_>
      <rects>
        <_>
          7 3 4 12 -1.</_>
        <_>
          7 7 4 4 3.</_></rects>
      <tilted>0</tilted></_>
    <_>
      <rects>
        <_>
          7 3 7 8 -1.</_>
        <_>
          7 7 7 4 2.</_></rects>
      <tilted>0</tilted></_>
    <_>
      <rects>
        <_>
          7 6 12 1 -1.</_>
        <_>
          11 6 4 1 3.</_></rects>
      <tilted>0</tilted></_>
    <_>
      <rects>
        <_>
          7 6 12 6 -1.</_>
        <_>
          13 6 6 6 2.</_></rects>
      <tilted>0</tilted></_>
    <_>
      <rects>
        <_>
          7 7 10 10 -1.</_>
        <_>
          7 7 5 5 2.</_>
        <_>
          12 12 5 5 2.</_></rects>
      <tilted>0</tilted></_>
    <_>
      <rects>
        <_>
          7 8 2 15 -1.</_>
        <_>
          7 13 2 5 3.</_></rects>
      <tilted>0</tilted></_>
    <_>
      <rects>
        <_>
          7 10 4 6 -1.</_>
        <_>
          7 10 2 3 2.</_>
        <_>
          9 13 2 3 2.</_></rects>
      <tilted>0</tilted></_>
    <_>
      <rects>
        <_>
          7 10 10 9 -1.</_>
        <_>
          12 10 5 9 2.</_></rects>
      <tilted>0</tilted></_>
    <_>
      <rects>
        <_>
          7 11 4 2 -1.</_>
        <_>
          7 11 2 1 2.</_>
        <_>
          9 12 2 1 2.</_></rects>
      <tilted>0</tilted></_>
    <_>
      <rects>
        <_>
          7 13 15 4 -1.</_>
        <_>
          12 13 5 4 3.</_></rects>
      <tilted>0</tilted></_>
    <_>
      <rects>
        <_>
          7 16 10 1 -1.</_>
        <_>
          12 16 5 1 2.</_></rects>
      <tilted>0</tilted></_>
    <_>
      <rects>
        <_>
          7 17 10 4 -1.</_>
        <_>
          7 17 5 2 2.</_>
        <_>
          12 19 5 2 2.</_></rects>
      <tilted>0</tilted></_>
    <_>
      <rects>
        <_>
          8 5 6 8 -1.</_>
        <_>
          10 5 2 8 3.</_></rects>
      <tilted>0</tilted></_>
    <_>
      <rects>
        <_>
          8 11 4 2 -1.</_>
        <_>
          10 11 2 2 2.</_></rects>
      <tilted>0</tilted></_>
    <_>
      <rects>
        <_>
          8 14 2 2 -1.</_>
        <_>
          9 14 1 2 2.</_></rects>
      <tilted>0</tilted></_>
    <_>
      <rects>
        <_>
          8 15 3 1 -1.</_>
        <_>
          9 15 1 1 3.</_></rects>
      <tilted>0</tilted></_>
    <_>
      <rects>
        <_>
          8 16 3 8 -1.</_>
        <_>
          8 20 3 4 2.</_></rects>
      <tilted>0</tilted></_>
    <_>
      <rects>
        <_>
          8 18 4 6 -1.</_>
        <_>
          8 21 4 3 2.</_></rects>
      <tilted>0</tilted></_>
    <_>
      <rects>
        <_>
          9 5 5 6 -1.</_>
        <_>
          9 7 5 2 3.</_></rects>
      <tilted>0</tilted></_>
    <_>
      <rects>
        <_>
          9 10 9 8 -1.</_>
        <_>
          12 10 3 8 3.</_></rects>
      <tilted>0</tilted></_>
    <_>
      <rects>
        <_>
          9 11 6 2 -1.</_>
        <_>
          11 11 2 2 3.</_></rects>
      <tilted>0</tilted></_>
    <_>
      <rects>
        <_>
          9 11 6 3 -1.</_>
        <_>
          11 11 2 3 3.</_></rects>
      <tilted>0</tilted></_>
    <_>
      <rects>
        <_>
          10 3 6 21 -1.</_>
        <_>
          12 3 2 21 3.</_></rects>
      <tilted>0</tilted></_>
    <_>
      <rects>
        <_>
          10 4 7 6 -1.</_>
        <_>
          10 6 7 2 3.</_></rects>
      <tilted>0</tilted></_>
    <_>
      <rects>
        <_>
          10 8 9 10 -1.</_>
        <_>
          13 8 3 10 3.</_></rects>
      <tilted>0</tilted></_>
    <_>
      <rects>
        <_>
          10 10 6 13 -1.</_>
        <_>
          12 10 2 13 3.</_></rects>
      <tilted>0</tilted></_>
    <_>
      <rects>
        <_>
          10 10 9 7 -1.</_>
        <_>
          13 10 3 7 3.</_></rects>
      <tilted>0</tilted></_>
    <_>
      <rects>
        <_>
          10 10 9 8 -1.</_>
        <_>
          13 10 3 8 3.</_></rects>
      <tilted>0</tilted></_>
    <_>
      <rects>
        <_>
          10 11 6 4 -1.</_>
        <_>
          12 11 2 4 3.</_></rects>
      <tilted>0</tilted></_>
    <_>
      <rects>
        <_>
          11 3 4 6 -1.</_>
        <_>
          13 3 2 6 2.</_></rects>
      <tilted>0</tilted></_>
    <_>
      <rects>
        <_>
          11 4 5 6 -1.</_>
        <_>
          11 6 5 2 3.</_></rects>
      <tilted>0</tilted></_>
    <_>
      <rects>
        <_>
          11 10 6 7 -1.</_>
        <_>
          13 10 2 7 3.</_></rects>
      <tilted>0</tilted></_>
    <_>
      <rects>
        <_>
          11 10 7 6 -1.</_>
        <_>
          11 12 7 2 3.</_></rects>
      <tilted>0</tilted></_>
    <_>
      <rects>
        <_>
          11 12 6 7 -1.</_>
        <_>
          13 12 2 7 3.</_></rects>
      <tilted>0</tilted></_>
    <_>
      <rects>
        <_>
          11 14 6 3 -1.</_>
        <_>
          11 15 6 1 3.</_></rects>
      <tilted>0</tilted></_>
    <_>
      <rects>
        <_>
          11 14 9 3 -1.</_>
        <_>
          11 15 9 1 3.</_></rects>
      <tilted>0</tilted></_>
    <_>
      <rects>
        <_>
          12 4 8 6 -1.</_>
        <_>
          12 4 4 3 2.</_>
        <_>
          16 7 4 3 2.</_></rects>
      <tilted>0</tilted></_>
    <_>
      <rects>
        <_>
          12 11 6 7 -1.</_>
        <_>
          14 11 2 7 3.</_></rects>
      <tilted>0</tilted></_>
    <_>
      <rects>
        <_>
          12 11 6 8 -1.</_>
        <_>
          14 11 2 8 3.</_></rects>
      <tilted>0</tilted></_>
    <_>
      <rects>
        <_>
          12 11 4 9 -1.</_>
        <_>
          14 11 2 9 2.</_></rects>
      <tilted>0</tilted></_>
    <_>
      <rects>
        <_>
          12 12 6 6 -1.</_>
        <_>
          14 12 2 6 3.</_></rects>
      <tilted>0</tilted></_>
    <_>
      <rects>
        <_>
          12 12 5 4 -1.</_>
        <_>
          12 14 5 2 2.</_></rects>
      <tilted>0</tilted></_>
    <_>
      <rects>
        <_>
          12 15 8 1 -1.</_>
        <_>
          16 15 4 1 2.</_></rects>
      <tilted>0</tilted></_>
    <_>
      <rects>
        <_>
          13 1 4 22 -1.</_>
        <_>
          13 12 4 11 2.</_></rects>
      <tilted>0</tilted></_>
    <_>
      <rects>
        <_>
          13 3 2 6 -1.</_>
        <_>
          14 3 1 6 2.</_></rects>
      <tilted>0</tilted></_>
    <_>
      <rects>
        <_>
          13 8 6 8 -1.</_>
        <_>
          15 8 2 8 3.</_></rects>
      <tilted>0</tilted></_>
    <_>
      <rects>
        <_>
          13 8 6 9 -1.</_>
        <_>
          15 8 2 9 3.</_></rects>
      <tilted>0</tilted></_>
    <_>
      <rects>
        <_>
          13 9 6 10 -1.</_>
        <_>
          15 9 2 10 3.</_></rects>
      <tilted>0</tilted></_>
    <_>
      <rects>
        <_>
          13 10 6 5 -1.</_>
        <_>
          15 10 2 5 3.</_></rects>
      <tilted>0</tilted></_>
    <_>
      <rects>
        <_>
          13 11 6 3 -1.</_>
        <_>
          13 12 6 1 3.</_></rects>
      <tilted>0</tilted></_>
    <_>
      <rects>
        <_>
          13 12 3 6 -1.</_>
        <_>
          14 12 1 6 3.</_></rects>
      <tilted>0</tilted></_>
    <_>
      <rects>
        <_>
          13 13 6 7 -1.</_>
        <_>
          15 13 2 7 3.</_></rects>
      <tilted>0</tilted></_>
    <_>
      <rects>
        <_>
          13 13 4 2 -1.</_>
        <_>
          13 14 4 1 2.</_></rects>
      <tilted>0</tilted></_>
    <_>
      <rects>
        <_>
          14 3 6 6 -1.</_>
        <_>
          14 3 3 3 2.</_>
        <_>
          17 6 3 3 2.</_></rects>
      <tilted>0</tilted></_>
    <_>
      <rects>
        <_>
          14 5 6 6 -1.</_>
        <_>
          14 5 3 3 2.</_>
        <_>
          17 8 3 3 2.</_></rects>
      <tilted>0</tilted></_>
    <_>
      <rects>
        <_>
          14 8 6 10 -1.</_>
        <_>
          16 8 2 10 3.</_></rects>
      <tilted>0</tilted></_>
    <_>
      <rects>
        <_>
          14 8 9 7 -1.</_>
        <_>
          17 8 3 7 3.</_></rects>
      <tilted>0</tilted></_>
    <_>
      <rects>
        <_>
          14 8 9 10 -1.</_>
        <_>
          17 8 3 10 3.</_></rects>
      <tilted>0</tilted></_>
    <_>
      <rects>
        <_>
          14 9 6 5 -1.</_>
        <_>
          16 9 2 5 3.</_></rects>
      <tilted>0</tilted></_>
    <_>
      <rects>
        <_>
          14 9 6 6 -1.</_>
        <_>
          16 9 2 6 3.</_></rects>
      <tilted>0</tilted></_>
    <_>
      <rects>
        <_>
          14 9 9 7 -1.</_>
        <_>
          17 9 3 7 3.</_></rects>
      <tilted>0</tilted></_>
    <_>
      <rects>
        <_>
          14 10 5 6 -1.</_>
        <_>
          14 12 5 2 3.</_></rects>
      <tilted>0</tilted></_>
    <_>
      <rects>
        <_>
          14 12 5 6 -1.</_>
        <_>
          14 14 5 2 3.</_></rects>
      <tilted>0</tilted></_>
    <_>
      <rects>
        <_>
          15 1 1 9 -1.</_>
        <_>
          15 4 1 3 3.</_></rects>
      <tilted>0</tilted></_>
    <_>
      <rects>
        <_>
          15 8 6 9 -1.</_>
        <_>
          17 8 2 9 3.</_></rects>
      <tilted>0</tilted></_>
    <_>
      <rects>
        <_>
          15 10 4 4 -1.</_>
        <_>
          15 12 4 2 2.</_></rects>
      <tilted>0</tilted></_>
    <_>
      <rects>
        <_>
          15 23 9 1 -1.</_>
        <_>
          18 23 3 1 3.</_></rects>
      <tilted>0</tilted></_>
    <_>
      <rects>
        <_>
          16 8 3 10 -1.</_>
        <_>
          17 8 1 10 3.</_></rects>
      <tilted>0</tilted></_>
    <_>
      <rects>
        <_>
          18 23 6 1 -1.</_>
        <_>
          21 23 3 1 2.</_></rects>
      <tilted>0</tilted></_>
    <_>
      <rects>
        <_>
          19 4 2 16 -1.</_>
        <_>
          20 4 1 16 2.</_></rects>
      <tilted>0</tilted></_></features></cascade>
</opencv_storage>
