<?xml version="1.0"?>
<opencv_storage>
<cascade>
  <stageType>BOOST</stageType>
  <featureType>HAAR</featureType>
  <height>24</height>
  <width>24</width>
  <stageParams>
    <boostType>GAB</boostType>
    <minHitRate>9.9900001287460327e-01</minHitRate>
    <maxFalseAlarm>5.0000000000000000e-01</maxFalseAlarm>
    <weightTrimRate>9.4999998807907104e-01</weightTrimRate>
    <maxDepth>1</maxDepth>
    <maxWeakCount>100</maxWeakCount></stageParams>
  <featureParams>
    <maxCatCount>0</maxCatCount>
    <featSize>1</featSize>
    <mode>BASIC</mode></featureParams>
  <stageNum>16</stageNum>
  <stages>
    <!-- stage 0 -->
    <_>
      <maxWeakCount>3</maxWeakCount>
      <stageThreshold>-1.2711725234985352e+00</stageThreshold>
      <weakClassifiers>
        <_>
          <internalNodes>
            0 -1 66 1.4834211766719818e-01</internalNodes>
          <leafValues>
            -9.6230262517929077e-01 6.6287016868591309e-01</leafValues></_>
        <_>
          <internalNodes>
            0 -1 59 -2.5795176625251770e-02</internalNodes>
          <leafValues>
            6.3081461191177368e-01 -8.7473088502883911e-01</leafValues></_>
        <_>
          <internalNodes>
            0 -1 5 -4.9592275172472000e-02</internalNodes>
          <leafValues>
            5.6586098670959473e-01 -8.8289374113082886e-01</leafValues></_></weakClassifiers></_>
    <!-- stage 1 -->
    <_>
      <maxWeakCount>4</maxWeakCount>
      <stageThreshold>-1.9337643384933472e+00</stageThreshold>
      <weakClassifiers>
        <_>
          <internalNodes>
            0 -1 57 -5.9332005679607391e-02</internalNodes>
          <leafValues>
            5.0212764739990234e-01 -9.4927537441253662e-01</leafValues></_>
        <_>
          <internalNodes>
            0 -1 61 -5.8285579085350037e-02</internalNodes>
          <leafValues>
            5.4120683670043945e-01 -8.2323890924453735e-01</leafValues></_>
        <_>
          <internalNodes>
            0 -1 42 5.6946873664855957e-03</internalNodes>
          <leafValues>
            -6.3708817958831787e-01 7.5182950496673584e-01</leafValues></_>
        <_>
          <internalNodes>
            0 -1 23 5.3973756730556488e-02</internalNodes>
          <leafValues>
            -1. 4.7583809494972229e-01</leafValues></_></weakClassifiers></_>
    <!-- stage 2 -->
    <_>
      <maxWeakCount>6</maxWeakCount>
      <stageThreshold>-1.9300414323806763e+00</stageThreshold>
      <weakClassifiers>
        <_>
          <internalNodes>
            0 -1 117 -3.4532877616584301e-03</internalNodes>
          <leafValues>
            7.5524473190307617e-01 -8.5727787017822266e-01</leafValues></_>
        <_>
          <internalNodes>
            0 -1 0 3.1838737428188324e-02</internalNodes>
          <leafValues>
            -7.6783478260040283e-01 6.0412043333053589e-01</leafValues></_>
        <_>
          <internalNodes>
            0 -1 81 -4.4321842491626740e-02</internalNodes>
          <leafValues>
            5.7974785566329956e-01 -7.9624652862548828e-01</leafValues></_>
        <_>
          <internalNodes>
            0 -1 109 -4.8278816975653172e-03</internalNodes>
          <leafValues>
            9.3896043300628662e-01 -4.5430627465248108e-01</leafValues></_>
        <_>
          <internalNodes>
            0 -1 12 -4.6638526022434235e-02</internalNodes>
          <leafValues>
            5.3822207450866699e-01 -7.4923545122146606e-01</leafValues></_>
        <_>
          <internalNodes>
            0 -1 49 2.6995032094419003e-03</internalNodes>
          <leafValues>
            -7.5935721397399902e-01 4.0740197896957397e-01</leafValues></_></weakClassifiers></_>
    <!-- stage 3 -->
    <_>
      <maxWeakCount>8</maxWeakCount>
      <stageThreshold>-2.0837066173553467e+00</stageThreshold>
      <weakClassifiers>
        <_>
          <internalNodes>
            0 -1 115 -1.2667111121118069e-02</internalNodes>
          <leafValues>
            4.3291139602661133e-01 -8.8141506910324097e-01</leafValues></_>
        <_>
          <internalNodes>
            0 -1 62 -7.7270865440368652e-02</internalNodes>
          <leafValues>
            5.0686782598495483e-01 -6.8584632873535156e-01</leafValues></_>
        <_>
          <internalNodes>
            0 -1 52 4.4603757560253143e-03</internalNodes>
          <leafValues>
            -4.0828898549079895e-01 8.3800739049911499e-01</leafValues></_>
        <_>
          <internalNodes>
            0 -1 101 1.3465519994497299e-02</internalNodes>
          <leafValues>
            -3.9490067958831787e-01 7.0977085828781128e-01</leafValues></_>
        <_>
          <internalNodes>
            0 -1 36 -3.2543712295591831e-03</internalNodes>
          <leafValues>
            -8.4241724014282227e-01 3.1705427169799805e-01</leafValues></_>
        <_>
          <internalNodes>
            0 -1 54 -3.1888121739029884e-03</internalNodes>
          <leafValues>
            7.6520729064941406e-01 -3.3894491195678711e-01</leafValues></_>
        <_>
          <internalNodes>
            0 -1 71 -3.8010063581168652e-03</internalNodes>
          <leafValues>
            7.9214429855346680e-01 -2.9164540767669678e-01</leafValues></_>
        <_>
          <internalNodes>
            0 -1 9 1.2080278247594833e-02</internalNodes>
          <leafValues>
            -4.4157704710960388e-01 6.0028052330017090e-01</leafValues></_></weakClassifiers></_>
    <!-- stage 4 -->
    <_>
      <maxWeakCount>8</maxWeakCount>
      <stageThreshold>-2.2303366661071777e+00</stageThreshold>
      <weakClassifiers>
        <_>
          <internalNodes>
            0 -1 92 -1.4732360839843750e-02</internalNodes>
          <leafValues>
            6.5765768289566040e-01 -8.0000001192092896e-01</leafValues></_>
        <_>
          <internalNodes>
            0 -1 20 -8.3025656640529633e-02</internalNodes>
          <leafValues>
            3.4834983944892883e-01 -7.6561599969863892e-01</leafValues></_>
        <_>
          <internalNodes>
            0 -1 72 -1.2611985206604004e-02</internalNodes>
          <leafValues>
            9.1005152463912964e-01 -3.6858952045440674e-01</leafValues></_>
        <_>
          <internalNodes>
            0 -1 63 -3.3779696095734835e-03</internalNodes>
          <leafValues>
            3.8538652658462524e-01 -7.4186450242996216e-01</leafValues></_>
        <_>
          <internalNodes>
            0 -1 41 -3.7130143027752638e-03</internalNodes>
          <leafValues>
            5.3744912147521973e-01 -4.0438175201416016e-01</leafValues></_>
        <_>
          <internalNodes>
            0 -1 77 -4.4311441481113434e-02</internalNodes>
          <leafValues>
            3.1388759613037109e-01 -7.2648990154266357e-01</leafValues></_>
        <_>
          <internalNodes>
            0 -1 3 -1.1739913374185562e-02</internalNodes>
          <leafValues>
            2.9402357339859009e-01 -7.2350424528121948e-01</leafValues></_>
        <_>
          <internalNodes>
            0 -1 133 -9.1383680701255798e-03</internalNodes>
          <leafValues>
            8.3895957469940186e-01 -2.8479954600334167e-01</leafValues></_></weakClassifiers></_>
    <!-- stage 5 -->
    <_>
      <maxWeakCount>6</maxWeakCount>
      <stageThreshold>-1.9577496051788330e+00</stageThreshold>
      <weakClassifiers>
        <_>
          <internalNodes>
            0 -1 94 -9.3033071607351303e-03</internalNodes>
          <leafValues>
            7.6119405031204224e-01 -7.9554748535156250e-01</leafValues></_>
        <_>
          <internalNodes>
            0 -1 79 -8.8011538609862328e-03</internalNodes>
          <leafValues>
            8.3753323554992676e-01 -5.3671479225158691e-01</leafValues></_>
        <_>
          <internalNodes>
            0 -1 6 2.1565122902393341e-01</internalNodes>
          <leafValues>
            -6.3870763778686523e-01 4.4837811589241028e-01</leafValues></_>
        <_>
          <internalNodes>
            0 -1 85 9.8816258832812309e-04</internalNodes>
          <leafValues>
            3.4129673242568970e-01 -6.8864870071411133e-01</leafValues></_>
        <_>
          <internalNodes>
            0 -1 11 -2.8925642371177673e-02</internalNodes>
          <leafValues>
            3.9630535244941711e-01 -5.7396185398101807e-01</leafValues></_>
        <_>
          <internalNodes>
            0 -1 35 7.9480418935418129e-03</internalNodes>
          <leafValues>
            2.4588543176651001e-01 -9.6240371465682983e-01</leafValues></_></weakClassifiers></_>
    <!-- stage 6 -->
    <_>
      <maxWeakCount>9</maxWeakCount>
      <stageThreshold>-1.7199279069900513e+00</stageThreshold>
      <weakClassifiers>
        <_>
          <internalNodes>
            0 -1 114 -6.7211017012596130e-03</internalNodes>
          <leafValues>
            3.8562092185020447e-01 -8.1870228052139282e-01</leafValues></_>
        <_>
          <internalNodes>
            0 -1 39 4.7198310494422913e-02</internalNodes>
          <leafValues>
            -5.4865980148315430e-01 6.0700005292892456e-01</leafValues></_>
        <_>
          <internalNodes>
            0 -1 7 -1.7100341618061066e-02</internalNodes>
          <leafValues>
            3.3338612318038940e-01 -6.5016353130340576e-01</leafValues></_>
        <_>
          <internalNodes>
            0 -1 58 7.3844764847308397e-04</internalNodes>
          <leafValues>
            2.2625096142292023e-01 -8.4460163116455078e-01</leafValues></_>
        <_>
          <internalNodes>
            0 -1 83 -6.5086211543530226e-04</internalNodes>
          <leafValues>
            -8.2624971866607666e-01 2.6005765795707703e-01</leafValues></_>
        <_>
          <internalNodes>
            0 -1 67 -6.5751408692449331e-04</internalNodes>
          <leafValues>
            -8.8103669881820679e-01 1.7973780632019043e-01</leafValues></_>
        <_>
          <internalNodes>
            0 -1 69 8.0562767107039690e-04</internalNodes>
          <leafValues>
            2.6849699020385742e-01 -7.8236323595046997e-01</leafValues></_>
        <_>
          <internalNodes>
            0 -1 44 -1.0979074984788895e-02</internalNodes>
          <leafValues>
            8.5483646392822266e-01 -2.7256253361701965e-01</leafValues></_>
        <_>
          <internalNodes>
            0 -1 107 -7.1710571646690369e-03</internalNodes>
          <leafValues>
            7.7377992868423462e-01 -2.5877657532691956e-01</leafValues></_></weakClassifiers></_>
    <!-- stage 7 -->
    <_>
      <maxWeakCount>8</maxWeakCount>
      <stageThreshold>-1.9273812770843506e+00</stageThreshold>
      <weakClassifiers>
        <_>
          <internalNodes>
            0 -1 125 -5.5729178711771965e-03</internalNodes>
          <leafValues>
            2.2191780805587769e-01 -8.2425135374069214e-01</leafValues></_>
        <_>
          <internalNodes>
            0 -1 27 -1.1130278930068016e-02</internalNodes>
          <leafValues>
            6.4354914426803589e-01 -5.1672089099884033e-01</leafValues></_>
        <_>
          <internalNodes>
            0 -1 110 -1.1758507753256708e-04</internalNodes>
          <leafValues>
            3.3365568518638611e-01 -6.2090331315994263e-01</leafValues></_>
        <_>
          <internalNodes>
            0 -1 84 1.8462969455868006e-03</internalNodes>
          <leafValues>
            -6.8117415904998779e-01 2.9128146171569824e-01</leafValues></_>
        <_>
          <internalNodes>
            0 -1 60 -2.9730541631579399e-02</internalNodes>
          <leafValues>
            -9.0553402900695801e-01 2.2999320924282074e-01</leafValues></_>
        <_>
          <internalNodes>
            0 -1 73 8.7521690875291824e-04</internalNodes>
          <leafValues>
            1.7781461775302887e-01 -8.4904623031616211e-01</leafValues></_>
        <_>
          <internalNodes>
            0 -1 122 -8.3807166665792465e-03</internalNodes>
          <leafValues>
            6.0006958246231079e-01 -3.3567580580711365e-01</leafValues></_>
        <_>
          <internalNodes>
            0 -1 130 2.7477717958390713e-03</internalNodes>
          <leafValues>
            -2.5661739706993103e-01 7.1553063392639160e-01</leafValues></_></weakClassifiers></_>
    <!-- stage 8 -->
    <_>
      <maxWeakCount>10</maxWeakCount>
      <stageThreshold>-2.1591069698333740e+00</stageThreshold>
      <weakClassifiers>
        <_>
          <internalNodes>
            0 -1 96 -6.5717166289687157e-03</internalNodes>
          <leafValues>
            2.1511627733707428e-01 -8.1243926286697388e-01</leafValues></_>
        <_>
          <internalNodes>
            0 -1 24 -1.5164744853973389e-01</internalNodes>
          <leafValues>
            2.2643814980983734e-01 -6.8862926959991455e-01</leafValues></_>
        <_>
          <internalNodes>
            0 -1 78 -8.4939915686845779e-03</internalNodes>
          <leafValues>
            7.2862523794174194e-01 -3.2626414299011230e-01</leafValues></_>
        <_>
          <internalNodes>
            0 -1 68 8.5870554903522134e-04</internalNodes>
          <leafValues>
            2.4302862584590912e-01 -9.4486337900161743e-01</leafValues></_>
        <_>
          <internalNodes>
            0 -1 88 -3.7810071371495724e-03</internalNodes>
          <leafValues>
            3.6198821663856506e-01 -5.3393745422363281e-01</leafValues></_>
        <_>
          <internalNodes>
            0 -1 51 -1.0584846138954163e-02</internalNodes>
          <leafValues>
            8.8159501552581787e-01 -2.1905198693275452e-01</leafValues></_>
        <_>
          <internalNodes>
            0 -1 26 -4.1310056985821575e-05</internalNodes>
          <leafValues>
            3.4678509831428528e-01 -6.0035479068756104e-01</leafValues></_>
        <_>
          <internalNodes>
            0 -1 89 -1.1638230644166470e-03</internalNodes>
          <leafValues>
            3.6365297436714172e-01 -4.5829603075981140e-01</leafValues></_>
        <_>
          <internalNodes>
            0 -1 106 2.1234009182080626e-04</internalNodes>
          <leafValues>
            2.2638878226280212e-01 -7.9467928409576416e-01</leafValues></_>
        <_>
          <internalNodes>
            0 -1 64 -6.4794123172760010e-03</internalNodes>
          <leafValues>
            -8.0877012014389038e-01 1.8849952518939972e-01</leafValues></_></weakClassifiers></_>
    <!-- stage 9 -->
    <_>
      <maxWeakCount>9</maxWeakCount>
      <stageThreshold>-1.8105579614639282e+00</stageThreshold>
      <weakClassifiers>
        <_>
          <internalNodes>
            0 -1 30 -1.3089027255773544e-02</internalNodes>
          <leafValues>
            5.0738918781280518e-01 -7.7353340387344360e-01</leafValues></_>
        <_>
          <internalNodes>
            0 -1 45 -1.2331845238804817e-02</internalNodes>
          <leafValues>
            6.1551654338836670e-01 -4.7344273328781128e-01</leafValues></_>
        <_>
          <internalNodes>
            0 -1 65 -1.0866161435842514e-02</internalNodes>
          <leafValues>
            3.5431742668151855e-01 -6.1519891023635864e-01</leafValues></_>
        <_>
          <internalNodes>
            0 -1 126 3.5195387899875641e-03</internalNodes>
          <leafValues>
            -4.4323149323463440e-01 3.9385923743247986e-01</leafValues></_>
        <_>
          <internalNodes>
            0 -1 99 5.1815202459692955e-04</internalNodes>
          <leafValues>
            2.2179073095321655e-01 -8.2700312137603760e-01</leafValues></_>
        <_>
          <internalNodes>
            0 -1 32 -1.8407031893730164e-03</internalNodes>
          <leafValues>
            2.4112205207347870e-01 -7.9315203428268433e-01</leafValues></_>
        <_>
          <internalNodes>
            0 -1 55 -6.3083963468670845e-03</internalNodes>
          <leafValues>
            6.8630623817443848e-01 -3.1433370709419250e-01</leafValues></_>
        <_>
          <internalNodes>
            0 -1 113 -6.2238133978098631e-04</internalNodes>
          <leafValues>
            2.5909909605979919e-01 -7.8397119045257568e-01</leafValues></_>
        <_>
          <internalNodes>
            0 -1 87 -6.0323381330817938e-04</internalNodes>
          <leafValues>
            -9.1346943378448486e-01 1.7076952755451202e-01</leafValues></_></weakClassifiers></_>
    <!-- stage 10 -->
    <_>
      <maxWeakCount>11</maxWeakCount>
      <stageThreshold>-2.0915222167968750e+00</stageThreshold>
      <weakClassifiers>
        <_>
          <internalNodes>
            0 -1 129 -1.5468454919755459e-02</internalNodes>
          <leafValues>
            7.1641790866851807e-01 -7.4691355228424072e-01</leafValues></_>
        <_>
          <internalNodes>
            0 -1 132 9.0652741491794586e-03</internalNodes>
          <leafValues>
            -8.2925349473953247e-01 1.4739423990249634e-01</leafValues></_>
        <_>
          <internalNodes>
            0 -1 97 -2.2177619393914938e-03</internalNodes>
          <leafValues>
            5.0078731775283813e-01 -4.2444804310798645e-01</leafValues></_>
        <_>
          <internalNodes>
            0 -1 98 -1.5979636460542679e-02</internalNodes>
          <leafValues>
            3.4956479072570801e-01 -5.9891945123672485e-01</leafValues></_>
        <_>
          <internalNodes>
            0 -1 74 -2.1175248548388481e-05</internalNodes>
          <leafValues>
            3.6597362160682678e-01 -4.9242481589317322e-01</leafValues></_>
        <_>
          <internalNodes>
            0 -1 4 1.6666039824485779e-02</internalNodes>
          <leafValues>
            -4.4663953781127930e-01 3.9901706576347351e-01</leafValues></_>
        <_>
          <internalNodes>
            0 -1 92 1.0629174299538136e-02</internalNodes>
          <leafValues>
            -2.2212140262126923e-01 8.2742255926132202e-01</leafValues></_>
        <_>
          <internalNodes>
            0 -1 93 1.1840013321489096e-03</internalNodes>
          <leafValues>
            2.9172831773757935e-01 -7.4233961105346680e-01</leafValues></_>
        <_>
          <internalNodes>
            0 -1 121 -5.0571300089359283e-03</internalNodes>
          <leafValues>
            3.6787045001983643e-01 -4.5306357741355896e-01</leafValues></_>
        <_>
          <internalNodes>
            0 -1 10 -1.7434017732739449e-02</internalNodes>
          <leafValues>
            5.3257322311401367e-01 -3.0636426806449890e-01</leafValues></_>
        <_>
          <internalNodes>
            0 -1 56 -2.3079274222254753e-02</internalNodes>
          <leafValues>
            4.6452879905700684e-01 -3.6863061785697937e-01</leafValues></_></weakClassifiers></_>
    <!-- stage 11 -->
    <_>
      <maxWeakCount>12</maxWeakCount>
      <stageThreshold>-1.9045395851135254e+00</stageThreshold>
      <weakClassifiers>
        <_>
          <internalNodes>
            0 -1 119 -3.1272026244550943e-03</internalNodes>
          <leafValues>
            7.2046108543872833e-02 -7.8978103399276733e-01</leafValues></_>
        <_>
          <internalNodes>
            0 -1 22 5.7328436523675919e-03</internalNodes>
          <leafValues>
            -6.5820914506912231e-01 2.0244987308979034e-01</leafValues></_>
        <_>
          <internalNodes>
            0 -1 31 -1.0700721293687820e-02</internalNodes>
          <leafValues>
            2.2238972783088684e-01 -7.7757501602172852e-01</leafValues></_>
        <_>
          <internalNodes>
            0 -1 46 5.4620800074189901e-04</internalNodes>
          <leafValues>
            -6.5016651153564453e-01 2.6327642798423767e-01</leafValues></_>
        <_>
          <internalNodes>
            0 -1 104 2.2806446999311447e-02</internalNodes>
          <leafValues>
            1.3607724010944366e-01 -9.1214609146118164e-01</leafValues></_>
        <_>
          <internalNodes>
            0 -1 21 1.5169383957982063e-02</internalNodes>
          <leafValues>
            -2.7906459569931030e-01 5.9442049264907837e-01</leafValues></_>
        <_>
          <internalNodes>
            0 -1 38 6.7056268453598022e-03</internalNodes>
          <leafValues>
            2.1821640431880951e-01 -7.8265547752380371e-01</leafValues></_>
        <_>
          <internalNodes>
            0 -1 48 -6.7723088432103395e-04</internalNodes>
          <leafValues>
            -7.3856472969055176e-01 2.1497027575969696e-01</leafValues></_>
        <_>
          <internalNodes>
            0 -1 34 7.1703419089317322e-02</internalNodes>
          <leafValues>
            1.3864538073539734e-01 -9.4099313020706177e-01</leafValues></_>
        <_>
          <internalNodes>
            0 -1 111 -2.2102114744484425e-03</internalNodes>
          <leafValues>
            6.3939154148101807e-01 -2.8137546777725220e-01</leafValues></_>
        <_>
          <internalNodes>
            0 -1 90 -1.6861805692315102e-02</internalNodes>
          <leafValues>
            -8.5802847146987915e-01 2.2454968094825745e-01</leafValues></_>
        <_>
          <internalNodes>
            0 -1 102 -3.4888121299445629e-03</internalNodes>
          <leafValues>
            8.7429910898208618e-01 -2.3898042738437653e-01</leafValues></_></weakClassifiers></_>
    <!-- stage 12 -->
    <_>
      <maxWeakCount>11</maxWeakCount>
      <stageThreshold>-2.1653895378112793e+00</stageThreshold>
      <weakClassifiers>
        <_>
          <internalNodes>
            0 -1 128 1.5628827735781670e-02</internalNodes>
          <leafValues>
            -7.5077605247497559e-01 6.4625853300094604e-01</leafValues></_>
        <_>
          <internalNodes>
            0 -1 116 -1.7128540202975273e-03</internalNodes>
          <leafValues>
            4.1748487949371338e-01 -5.2212810516357422e-01</leafValues></_>
        <_>
          <internalNodes>
            0 -1 108 -5.2845608443021774e-03</internalNodes>
          <leafValues>
            7.0428746938705444e-01 -2.7136281132698059e-01</leafValues></_>
        <_>
          <internalNodes>
            0 -1 123 -3.2418069895356894e-03</internalNodes>
          <leafValues>
            -7.4562966823577881e-01 2.5676256418228149e-01</leafValues></_>
        <_>
          <internalNodes>
            0 -1 29 -6.7104240879416466e-03</internalNodes>
          <leafValues>
            -8.3516180515289307e-01 2.0359355211257935e-01</leafValues></_>
        <_>
          <internalNodes>
            0 -1 18 9.1280173510313034e-03</internalNodes>
          <leafValues>
            2.2664032876491547e-01 -7.3114168643951416e-01</leafValues></_>
        <_>
          <internalNodes>
            0 -1 103 -3.8563529960811138e-03</internalNodes>
          <leafValues>
            7.3916584253311157e-01 -2.9165422916412354e-01</leafValues></_>
        <_>
          <internalNodes>
            0 -1 15 -1.3848129659891129e-02</internalNodes>
          <leafValues>
            -8.3476096391677856e-01 1.8955594301223755e-01</leafValues></_>
        <_>
          <internalNodes>
            0 -1 118 -1.7260567983612418e-04</internalNodes>
          <leafValues>
            3.1937795877456665e-01 -4.9694734811782837e-01</leafValues></_>
        <_>
          <internalNodes>
            0 -1 105 -1.8686146358959377e-04</internalNodes>
          <leafValues>
            -8.9237266778945923e-01 1.5683980286121368e-01</leafValues></_>
        <_>
          <internalNodes>
            0 -1 13 4.9605313688516617e-03</internalNodes>
          <leafValues>
            -7.1752601861953735e-01 1.7284221947193146e-01</leafValues></_></weakClassifiers></_>
    <!-- stage 13 -->
    <_>
      <maxWeakCount>13</maxWeakCount>
      <stageThreshold>-2.1278409957885742e+00</stageThreshold>
      <weakClassifiers>
        <_>
          <internalNodes>
            0 -1 128 1.6976291313767433e-02</internalNodes>
          <leafValues>
            -7.4613004922866821e-01 6.3120567798614502e-01</leafValues></_>
        <_>
          <internalNodes>
            0 -1 131 6.8620583042502403e-03</internalNodes>
          <leafValues>
            -3.8372978568077087e-01 7.3169136047363281e-01</leafValues></_>
        <_>
          <internalNodes>
            0 -1 14 -5.0547211430966854e-03</internalNodes>
          <leafValues>
            4.3181064724922180e-01 -4.4434601068496704e-01</leafValues></_>
        <_>
          <internalNodes>
            0 -1 100 -9.2477919533848763e-03</internalNodes>
          <leafValues>
            4.6502813696861267e-01 -3.9255312085151672e-01</leafValues></_>
        <_>
          <internalNodes>
            0 -1 91 -9.1025792062282562e-03</internalNodes>
          <leafValues>
            5.6194978952407837e-01 -2.8339418768882751e-01</leafValues></_>
        <_>
          <internalNodes>
            0 -1 72 -7.0083728060126305e-03</internalNodes>
          <leafValues>
            6.1029064655303955e-01 -2.3732991516590118e-01</leafValues></_>
        <_>
          <internalNodes>
            0 -1 8 -1.7427739221602678e-03</internalNodes>
          <leafValues>
            2.8168684244155884e-01 -6.0099804401397705e-01</leafValues></_>
        <_>
          <internalNodes>
            0 -1 37 2.1458764094859362e-03</internalNodes>
          <leafValues>
            1.8410427868366241e-01 -9.3246287107467651e-01</leafValues></_>
        <_>
          <internalNodes>
            0 -1 47 -8.3791691577062011e-04</internalNodes>
          <leafValues>
            -6.4235126972198486e-01 1.8869684636592865e-01</leafValues></_>
        <_>
          <internalNodes>
            0 -1 16 2.5587826967239380e-03</internalNodes>
          <leafValues>
            -6.8416255712509155e-01 1.7909558117389679e-01</leafValues></_>
        <_>
          <internalNodes>
            0 -1 80 2.2437730804085732e-03</internalNodes>
          <leafValues>
            -3.0804285407066345e-01 4.6810063719749451e-01</leafValues></_>
        <_>
          <internalNodes>
            0 -1 19 8.6904875934123993e-03</internalNodes>
          <leafValues>
            1.6415332257747650e-01 -9.2967206239700317e-01</leafValues></_>
        <_>
          <internalNodes>
            0 -1 2 1.9590575248003006e-02</internalNodes>
          <leafValues>
            -2.8348177671432495e-01 5.0099617242813110e-01</leafValues></_></weakClassifiers></_>
    <!-- stage 14 -->
    <_>
      <maxWeakCount>10</maxWeakCount>
      <stageThreshold>-1.9889910221099854e+00</stageThreshold>
      <weakClassifiers>
        <_>
          <internalNodes>
            0 -1 50 2.1102640777826309e-02</internalNodes>
          <leafValues>
            -7.5623017549514771e-01 3.6410257220268250e-01</leafValues></_>
        <_>
          <internalNodes>
            0 -1 120 6.9884797558188438e-03</internalNodes>
          <leafValues>
            -6.5354615449905396e-01 1.5881888568401337e-01</leafValues></_>
        <_>
          <internalNodes>
            0 -1 1 -4.0982965379953384e-02</internalNodes>
          <leafValues>
            4.2535856366157532e-01 -3.7492868304252625e-01</leafValues></_>
        <_>
          <internalNodes>
            0 -1 53 -9.2759709805250168e-03</internalNodes>
          <leafValues>
            7.5226640701293945e-01 -2.0136655867099762e-01</leafValues></_>
        <_>
          <internalNodes>
            0 -1 112 -2.5358870625495911e-02</internalNodes>
          <leafValues>
            -8.0752569437026978e-01 2.0940580964088440e-01</leafValues></_>
        <_>
          <internalNodes>
            0 -1 76 -1.3376682996749878e-02</internalNodes>
          <leafValues>
            2.0254077017307281e-01 -7.2101122140884399e-01</leafValues></_>
        <_>
          <internalNodes>
            0 -1 86 -1.2837469112128019e-03</internalNodes>
          <leafValues>
            3.4562245011329651e-01 -4.3584322929382324e-01</leafValues></_>
        <_>
          <internalNodes>
            0 -1 75 -1.0158646851778030e-02</internalNodes>
          <leafValues>
            7.4345993995666504e-01 -2.0897495746612549e-01</leafValues></_>
        <_>
          <internalNodes>
            0 -1 25 -2.6338393217884004e-04</internalNodes>
          <leafValues>
            2.5695359706878662e-01 -6.2032449245452881e-01</leafValues></_>
        <_>
          <internalNodes>
            0 -1 70 -2.5416985154151917e-02</internalNodes>
          <leafValues>
            -9.6583068370819092e-01 1.1508490145206451e-01</leafValues></_></weakClassifiers></_>
    <!-- stage 15 -->
    <_>
      <maxWeakCount>10</maxWeakCount>
      <stageThreshold>-1.8115977048873901e+00</stageThreshold>
      <weakClassifiers>
        <_>
          <internalNodes>
            0 -1 127 7.5043775141239166e-03</internalNodes>
          <leafValues>
            -7.6131689548492432e-01 3.1162789463996887e-01</leafValues></_>
        <_>
          <internalNodes>
            0 -1 124 6.1777904629707336e-03</internalNodes>
          <leafValues>
            -4.8718172311782837e-01 5.7982075214385986e-01</leafValues></_>
        <_>
          <internalNodes>
            0 -1 118 -3.7094880099175498e-05</internalNodes>
          <leafValues>
            3.0532127618789673e-01 -5.5484431982040405e-01</leafValues></_>
        <_>
          <internalNodes>
            0 -1 82 4.8437115037813783e-04</internalNodes>
          <leafValues>
            2.5574186444282532e-01 -6.6080421209335327e-01</leafValues></_>
        <_>
          <internalNodes>
            0 -1 33 -9.3852374702692032e-03</internalNodes>
          <leafValues>
            2.8116887807846069e-01 -5.2546525001525879e-01</leafValues></_>
        <_>
          <internalNodes>
            0 -1 28 -2.9338498134166002e-03</internalNodes>
          <leafValues>
            5.7614147663116455e-01 -2.8814819455146790e-01</leafValues></_>
        <_>
          <internalNodes>
            0 -1 43 -2.7440637350082397e-03</internalNodes>
          <leafValues>
            5.2752453088760376e-01 -2.7941256761550903e-01</leafValues></_>
        <_>
          <internalNodes>
            0 -1 40 4.8611313104629517e-03</internalNodes>
          <leafValues>
            -2.4040903151035309e-01 6.6985887289047241e-01</leafValues></_>
        <_>
          <internalNodes>
            0 -1 17 1.5279804356396198e-02</internalNodes>
          <leafValues>
            2.1706108748912811e-01 -8.8042920827865601e-01</leafValues></_>
        <_>
          <internalNodes>
            0 -1 95 6.1247567646205425e-04</internalNodes>
          <leafValues>
            1.5535220503807068e-01 -6.8044018745422363e-01</leafValues></_></weakClassifiers></_></stages>
  <features>
    <_>
      <rects>
        <_>
          0 4 9 17 -1.</_>
        <_>
          3 4 3 17 3.</_></rects>
      <tilted>0</tilted></_>
    <_>
      <rects>
        <_>
          1 0 12 8 -1.</_>
        <_>
          1 0 6 4 2.</_>
        <_>
          7 4 6 4 2.</_></rects>
      <tilted>0</tilted></_>
    <_>
      <rects>
        <_>
          1 17 8 6 -1.</_>
        <_>
          1 17 4 3 2.</_>
        <_>
          5 20 4 3 2.</_></rects>
      <tilted>0</tilted></_>
    <_>
      <rects>
        <_>
          2 4 14 15 -1.</_>
        <_>
          9 4 7 15 2.</_></rects>
      <tilted>0</tilted></_>
    <_>
      <rects>
        <_>
          2 5 6 19 -1.</_>
        <_>
          4 5 2 19 3.</_></rects>
      <tilted>0</tilted></_>
    <_>
      <rects>
        <_>
          2 5 15 14 -1.</_>
        <_>
          7 5 5 14 3.</_></rects>
      <tilted>0</tilted></_>
    <_>
      <rects>
        <_>
          2 5 16 15 -1.</_>
        <_>
          2 10 16 5 3.</_></rects>
      <tilted>0</tilted></_>
    <_>
      <rects>
        <_>
          2 6 12 13 -1.</_>
        <_>
          6 6 4 13 3.</_></rects>
      <tilted>0</tilted></_>
    <_>
      <rects>
        <_>
          2 19 14 1 -1.</_>
        <_>
          9 19 7 1 2.</_></rects>
      <tilted>0</tilted></_>
    <_>
      <rects>
        <_>
          3 2 6 15 -1.</_>
        <_>
          5 2 2 15 3.</_></rects>
      <tilted>0</tilted></_>
    <_>
      <rects>
        <_>
          3 2 6 8 -1.</_>
        <_>
          3 2 3 4 2.</_>
        <_>
          6 6 3 4 2.</_></rects>
      <tilted>0</tilted></_>
    <_>
      <rects>
        <_>
          3 4 6 16 -1.</_>
        <_>
          6 4 3 16 2.</_></rects>
      <tilted>0</tilted></_>
    <_>
      <rects>
        <_>
          3 4 18 15 -1.</_>
        <_>
          9 4 6 15 3.</_></rects>
      <tilted>0</tilted></_>
    <_>
      <rects>
        <_>
          3 9 5 9 -1.</_>
        <_>
          3 12 5 3 3.</_></rects>
      <tilted>0</tilted></_>
    <_>
      <rects>
        <_>
          3 9 12 4 -1.</_>
        <_>
          3 11 12 2 2.</_></rects>
      <tilted>0</tilted></_>
    <_>
      <rects>
        <_>
          3 12 12 2 -1.</_>
        <_>
          9 12 6 2 2.</_></rects>
      <tilted>0</tilted></_>
    <_>
      <rects>
        <_>
          4 7 4 9 -1.</_>
        <_>
          4 10 4 3 3.</_></rects>
      <tilted>0</tilted></_>
    <_>
      <rects>
        <_>
          4 7 15 5 -1.</_>
        <_>
          9 7 5 5 3.</_></rects>
      <tilted>0</tilted></_>
    <_>
      <rects>
        <_>
          4 9 12 5 -1.</_>
        <_>
          10 9 6 5 2.</_></rects>
      <tilted>0</tilted></_>
    <_>
      <rects>
        <_>
          4 12 10 2 -1.</_>
        <_>
          9 12 5 2 2.</_></rects>
      <tilted>0</tilted></_>
    <_>
      <rects>
        <_>
          4 14 13 9 -1.</_>
        <_>
          4 17 13 3 3.</_></rects>
      <tilted>0</tilted></_>
    <_>
      <rects>
        <_>
          4 20 8 4 -1.</_>
        <_>
          4 20 4 2 2.</_>
        <_>
          8 22 4 2 2.</_></rects>
      <tilted>0</tilted></_>
    <_>
      <rects>
        <_>
          5 4 6 6 -1.</_>
        <_>
          5 4 3 3 2.</_>
        <_>
          8 7 3 3 2.</_></rects>
      <tilted>0</tilted></_>
    <_>
      <rects>
        <_>
          5 6 12 12 -1.</_>
        <_>
          5 10 12 4 3.</_></rects>
      <tilted>0</tilted></_>
    <_>
      <rects>
        <_>
          5 12 16 12 -1.</_>
        <_>
          5 16 16 4 3.</_></rects>
      <tilted>0</tilted></_>
    <_>
      <rects>
        <_>
          6 3 9 4 -1.</_>
        <_>
          9 3 3 4 3.</_></rects>
      <tilted>0</tilted></_>
    <_>
      <rects>
        <_>
          6 4 5 2 -1.</_>
        <_>
          6 5 5 1 2.</_></rects>
      <tilted>0</tilted></_>
    <_>
      <rects>
        <_>
          6 9 3 8 -1.</_>
        <_>
          7 9 1 8 3.</_></rects>
      <tilted>0</tilted></_>
    <_>
      <rects>
        <_>
          6 9 6 2 -1.</_>
        <_>
          6 10 6 1 2.</_></rects>
      <tilted>0</tilted></_>
    <_>
      <rects>
        <_>
          6 10 8 3 -1.</_>
        <_>
          10 10 4 3 2.</_></rects>
      <tilted>0</tilted></_>
    <_>
      <rects>
        <_>
          6 11 3 5 -1.</_>
        <_>
          7 11 1 5 3.</_></rects>
      <tilted>0</tilted></_>
    <_>
      <rects>
        <_>
          6 13 4 6 -1.</_>
        <_>
          6 16 4 3 2.</_></rects>
      <tilted>0</tilted></_>
    <_>
      <rects>
        <_>
          6 14 9 5 -1.</_>
        <_>
          9 14 3 5 3.</_></rects>
      <tilted>0</tilted></_>
    <_>
      <rects>
        <_>
          6 17 9 6 -1.</_>
        <_>
          6 19 9 2 3.</_></rects>
      <tilted>0</tilted></_>
    <_>
      <rects>
        <_>
          7 0 4 18 -1.</_>
        <_>
          7 9 4 9 2.</_></rects>
      <tilted>0</tilted></_>
    <_>
      <rects>
        <_>
          7 4 12 8 -1.</_>
        <_>
          11 4 4 8 3.</_></rects>
      <tilted>0</tilted></_>
    <_>
      <rects>
        <_>
          7 6 12 14 -1.</_>
        <_>
          13 6 6 14 2.</_></rects>
      <tilted>0</tilted></_>
    <_>
      <rects>
        <_>
          7 7 9 1 -1.</_>
        <_>
          10 7 3 1 3.</_></rects>
      <tilted>0</tilted></_>
    <_>
      <rects>
        <_>
          7 7 8 5 -1.</_>
        <_>
          11 7 4 5 2.</_></rects>
      <tilted>0</tilted></_>
    <_>
      <rects>
        <_>
          7 7 8 6 -1.</_>
        <_>
          7 9 8 2 3.</_></rects>
      <tilted>0</tilted></_>
    <_>
      <rects>
        <_>
          7 9 2 5 -1.</_>
        <_>
          8 9 1 5 2.</_></rects>
      <tilted>0</tilted></_>
    <_>
      <rects>
        <_>
          7 9 3 5 -1.</_>
        <_>
          8 9 1 5 3.</_></rects>
      <tilted>0</tilted></_>
    <_>
      <rects>
        <_>
          7 9 6 3 -1.</_>
        <_>
          9 9 2 3 3.</_></rects>
      <tilted>0</tilted></_>
    <_>
      <rects>
        <_>
          7 11 3 2 -1.</_>
        <_>
          8 11 1 2 3.</_></rects>
      <tilted>0</tilted></_>
    <_>
      <rects>
        <_>
          7 11 3 4 -1.</_>
        <_>
          8 11 1 4 3.</_></rects>
      <tilted>0</tilted></_>
    <_>
      <rects>
        <_>
          7 11 3 5 -1.</_>
        <_>
          8 11 1 5 3.</_></rects>
      <tilted>0</tilted></_>
    <_>
      <rects>
        <_>
          7 11 14 2 -1.</_>
        <_>
          14 11 7 2 2.</_></rects>
      <tilted>0</tilted></_>
    <_>
      <rects>
        <_>
          8 6 6 1 -1.</_>
        <_>
          10 6 2 1 3.</_></rects>
      <tilted>0</tilted></_>
    <_>
      <rects>
        <_>
          8 7 4 1 -1.</_>
        <_>
          10 7 2 1 2.</_></rects>
      <tilted>0</tilted></_>
    <_>
      <rects>
        <_>
          8 7 10 10 -1.</_>
        <_>
          8 7 5 5 2.</_>
        <_>
          13 12 5 5 2.</_></rects>
      <tilted>0</tilted></_>
    <_>
      <rects>
        <_>
          8 9 3 7 -1.</_>
        <_>
          9 9 1 7 3.</_></rects>
      <tilted>0</tilted></_>
    <_>
      <rects>
        <_>
          8 10 3 6 -1.</_>
        <_>
          9 10 1 6 3.</_></rects>
      <tilted>0</tilted></_>
    <_>
      <rects>
        <_>
          8 11 2 4 -1.</_>
        <_>
          9 11 1 4 2.</_></rects>
      <tilted>0</tilted></_>
    <_>
      <rects>
        <_>
          8 11 3 4 -1.</_>
        <_>
          9 11 1 4 3.</_></rects>
      <tilted>0</tilted></_>
    <_>
      <rects>
        <_>
          8 12 3 3 -1.</_>
        <_>
          9 12 1 3 3.</_></rects>
      <tilted>0</tilted></_>
    <_>
      <rects>
        <_>
          8 13 3 4 -1.</_>
        <_>
          9 13 1 4 3.</_></rects>
      <tilted>0</tilted></_>
    <_>
      <rects>
        <_>
          8 14 9 6 -1.</_>
        <_>
          8 16 9 2 3.</_></rects>
      <tilted>0</tilted></_>
    <_>
      <rects>
        <_>
          8 14 9 9 -1.</_>
        <_>
          8 17 9 3 3.</_></rects>
      <tilted>0</tilted></_>
    <_>
      <rects>
        <_>
          8 19 6 1 -1.</_>
        <_>
          11 19 3 1 2.</_></rects>
      <tilted>0</tilted></_>
    <_>
      <rects>
        <_>
          9 2 4 9 -1.</_>
        <_>
          9 5 4 3 3.</_></rects>
      <tilted>0</tilted></_>
    <_>
      <rects>
        <_>
          9 2 5 18 -1.</_>
        <_>
          9 11 5 9 2.</_></rects>
      <tilted>0</tilted></_>
    <_>
      <rects>
        <_>
          9 2 7 9 -1.</_>
        <_>
          9 5 7 3 3.</_></rects>
      <tilted>0</tilted></_>
    <_>
      <rects>
        <_>
          9 2 8 9 -1.</_>
        <_>
          9 5 8 3 3.</_></rects>
      <tilted>0</tilted></_>
    <_>
      <rects>
        <_>
          9 4 2 6 -1.</_>
        <_>
          9 6 2 2 3.</_></rects>
      <tilted>0</tilted></_>
    <_>
      <rects>
        <_>
          9 4 6 16 -1.</_>
        <_>
          12 4 3 16 2.</_></rects>
      <tilted>0</tilted></_>
    <_>
      <rects>
        <_>
          9 4 12 10 -1.</_>
        <_>
          13 4 4 10 3.</_></rects>
      <tilted>0</tilted></_>
    <_>
      <rects>
        <_>
          9 5 10 15 -1.</_>
        <_>
          9 10 10 5 3.</_></rects>
      <tilted>0</tilted></_>
    <_>
      <rects>
        <_>
          9 6 4 1 -1.</_>
        <_>
          11 6 2 1 2.</_></rects>
      <tilted>0</tilted></_>
    <_>
      <rects>
        <_>
          9 6 6 1 -1.</_>
        <_>
          11 6 2 1 3.</_></rects>
      <tilted>0</tilted></_>
    <_>
      <rects>
        <_>
          9 6 6 1 -1.</_>
        <_>
          12 6 3 1 2.</_></rects>
      <tilted>0</tilted></_>
    <_>
      <rects>
        <_>
          9 7 9 8 -1.</_>
        <_>
          12 7 3 8 3.</_></rects>
      <tilted>0</tilted></_>
    <_>
      <rects>
        <_>
          9 10 2 6 -1.</_>
        <_>
          10 10 1 6 2.</_></rects>
      <tilted>0</tilted></_>
    <_>
      <rects>
        <_>
          9 10 3 6 -1.</_>
        <_>
          10 10 1 6 3.</_></rects>
      <tilted>0</tilted></_>
    <_>
      <rects>
        <_>
          9 10 4 6 -1.</_>
        <_>
          9 13 4 3 2.</_></rects>
      <tilted>0</tilted></_>
    <_>
      <rects>
        <_>
          9 10 6 3 -1.</_>
        <_>
          9 11 6 1 3.</_></rects>
      <tilted>0</tilted></_>
    <_>
      <rects>
        <_>
          9 11 3 3 -1.</_>
        <_>
          10 11 1 3 3.</_></rects>
      <tilted>0</tilted></_>
    <_>
      <rects>
        <_>
          9 11 3 8 -1.</_>
        <_>
          9 15 3 4 2.</_></rects>
      <tilted>0</tilted></_>
    <_>
      <rects>
        <_>
          9 11 8 10 -1.</_>
        <_>
          9 16 8 5 2.</_></rects>
      <tilted>0</tilted></_>
    <_>
      <rects>
        <_>
          9 12 3 3 -1.</_>
        <_>
          10 12 1 3 3.</_></rects>
      <tilted>0</tilted></_>
    <_>
      <rects>
        <_>
          9 12 3 4 -1.</_>
        <_>
          10 12 1 4 3.</_></rects>
      <tilted>0</tilted></_>
    <_>
      <rects>
        <_>
          9 13 3 3 -1.</_>
        <_>
          10 13 1 3 3.</_></rects>
      <tilted>0</tilted></_>
    <_>
      <rects>
        <_>
          9 14 8 9 -1.</_>
        <_>
          9 17 8 3 3.</_></rects>
      <tilted>0</tilted></_>
    <_>
      <rects>
        <_>
          9 17 4 1 -1.</_>
        <_>
          11 17 2 1 2.</_></rects>
      <tilted>0</tilted></_>
    <_>
      <rects>
        <_>
          9 19 6 1 -1.</_>
        <_>
          12 19 3 1 2.</_></rects>
      <tilted>0</tilted></_>
    <_>
      <rects>
        <_>
          9 19 12 1 -1.</_>
        <_>
          15 19 6 1 2.</_></rects>
      <tilted>0</tilted></_>
    <_>
      <rects>
        <_>
          10 4 8 4 -1.</_>
        <_>
          10 4 4 2 2.</_>
        <_>
          14 6 4 2 2.</_></rects>
      <tilted>0</tilted></_>
    <_>
      <rects>
        <_>
          10 5 2 7 -1.</_>
        <_>
          11 5 1 7 2.</_></rects>
      <tilted>0</tilted></_>
    <_>
      <rects>
        <_>
          10 6 4 1 -1.</_>
        <_>
          12 6 2 1 2.</_></rects>
      <tilted>0</tilted></_>
    <_>
      <rects>
        <_>
          10 6 12 2 -1.</_>
        <_>
          14 6 4 2 3.</_></rects>
      <tilted>0</tilted></_>
    <_>
      <rects>
        <_>
          10 8 2 4 -1.</_>
        <_>
          11 8 1 4 2.</_></rects>
      <tilted>0</tilted></_>
    <_>
      <rects>
        <_>
          10 8 9 9 -1.</_>
        <_>
          13 8 3 9 3.</_></rects>
      <tilted>0</tilted></_>
    <_>
      <rects>
        <_>
          10 9 3 8 -1.</_>
        <_>
          11 9 1 8 3.</_></rects>
      <tilted>0</tilted></_>
    <_>
      <rects>
        <_>
          10 10 3 6 -1.</_>
        <_>
          11 10 1 6 3.</_></rects>
      <tilted>0</tilted></_>
    <_>
      <rects>
        <_>
          10 11 4 2 -1.</_>
        <_>
          10 12 4 1 2.</_></rects>
      <tilted>0</tilted></_>
    <_>
      <rects>
        <_>
          10 12 3 3 -1.</_>
        <_>
          11 12 1 3 3.</_></rects>
      <tilted>0</tilted></_>
    <_>
      <rects>
        <_>
          10 12 3 2 -1.</_>
        <_>
          10 13 3 1 2.</_></rects>
      <tilted>0</tilted></_>
    <_>
      <rects>
        <_>
          10 13 3 3 -1.</_>
        <_>
          11 13 1 3 3.</_></rects>
      <tilted>0</tilted></_>
    <_>
      <rects>
        <_>
          10 14 3 2 -1.</_>
        <_>
          11 14 1 2 3.</_></rects>
      <tilted>0</tilted></_>
    <_>
      <rects>
        <_>
          10 15 3 9 -1.</_>
        <_>
          10 18 3 3 3.</_></rects>
      <tilted>0</tilted></_>
    <_>
      <rects>
        <_>
          10 18 4 1 -1.</_>
        <_>
          12 18 2 1 2.</_></rects>
      <tilted>0</tilted></_>
    <_>
      <rects>
        <_>
          10 18 4 6 -1.</_>
        <_>
          10 20 4 2 3.</_></rects>
      <tilted>0</tilted></_>
    <_>
      <rects>
        <_>
          10 20 4 4 -1.</_>
        <_>
          10 22 4 2 2.</_></rects>
      <tilted>0</tilted></_>
    <_>
      <rects>
        <_>
          11 11 3 1 -1.</_>
        <_>
          12 11 1 1 3.</_></rects>
      <tilted>0</tilted></_>
    <_>
      <rects>
        <_>
          11 12 3 2 -1.</_>
        <_>
          12 12 1 2 3.</_></rects>
      <tilted>0</tilted></_>
    <_>
      <rects>
        <_>
          11 13 6 8 -1.</_>
        <_>
          14 13 3 8 2.</_></rects>
      <tilted>0</tilted></_>
    <_>
      <rects>
        <_>
          11 18 2 1 -1.</_>
        <_>
          12 18 1 1 2.</_></rects>
      <tilted>0</tilted></_>
    <_>
      <rects>
        <_>
          11 19 2 1 -1.</_>
        <_>
          12 19 1 1 2.</_></rects>
      <tilted>0</tilted></_>
    <_>
      <rects>
        <_>
          12 10 3 6 -1.</_>
        <_>
          13 10 1 6 3.</_></rects>
      <tilted>0</tilted></_>
    <_>
      <rects>
        <_>
          12 11 3 2 -1.</_>
        <_>
          13 11 1 2 3.</_></rects>
      <tilted>0</tilted></_>
    <_>
      <rects>
        <_>
          12 11 3 3 -1.</_>
        <_>
          13 11 1 3 3.</_></rects>
      <tilted>0</tilted></_>
    <_>
      <rects>
        <_>
          12 11 4 3 -1.</_>
        <_>
          12 12 4 1 3.</_></rects>
      <tilted>0</tilted></_>
    <_>
      <rects>
        <_>
          12 12 3 1 -1.</_>
        <_>
          13 12 1 1 3.</_></rects>
      <tilted>0</tilted></_>
    <_>
      <rects>
        <_>
          13 3 3 20 -1.</_>
        <_>
          13 13 3 10 2.</_></rects>
      <tilted>0</tilted></_>
    <_>
      <rects>
        <_>
          13 4 1 6 -1.</_>
        <_>
          13 6 1 2 3.</_></rects>
      <tilted>0</tilted></_>
    <_>
      <rects>
        <_>
          13 11 3 3 -1.</_>
        <_>
          14 11 1 3 3.</_></rects>
      <tilted>0</tilted></_>
    <_>
      <rects>
        <_>
          13 11 8 6 -1.</_>
        <_>
          13 11 4 3 2.</_>
        <_>
          17 14 4 3 2.</_></rects>
      <tilted>0</tilted></_>
    <_>
      <rects>
        <_>
          13 12 3 1 -1.</_>
        <_>
          14 12 1 1 3.</_></rects>
      <tilted>0</tilted></_>
    <_>
      <rects>
        <_>
          13 12 3 2 -1.</_>
        <_>
          14 12 1 2 3.</_></rects>
      <tilted>0</tilted></_>
    <_>
      <rects>
        <_>
          13 12 3 3 -1.</_>
        <_>
          13 13 3 1 3.</_></rects>
      <tilted>0</tilted></_>
    <_>
      <rects>
        <_>
          13 13 3 1 -1.</_>
        <_>
          14 13 1 1 3.</_></rects>
      <tilted>0</tilted></_>
    <_>
      <rects>
        <_>
          13 15 8 4 -1.</_>
        <_>
          13 15 4 2 2.</_>
        <_>
          17 17 4 2 2.</_></rects>
      <tilted>0</tilted></_>
    <_>
      <rects>
        <_>
          14 3 4 8 -1.</_>
        <_>
          14 3 2 4 2.</_>
        <_>
          16 7 2 4 2.</_></rects>
      <tilted>0</tilted></_>
    <_>
      <rects>
        <_>
          14 6 6 4 -1.</_>
        <_>
          16 6 2 4 3.</_></rects>
      <tilted>0</tilted></_>
    <_>
      <rects>
        <_>
          14 7 6 15 -1.</_>
        <_>
          17 7 3 15 2.</_></rects>
      <tilted>0</tilted></_>
    <_>
      <rects>
        <_>
          14 9 3 7 -1.</_>
        <_>
          15 9 1 7 3.</_></rects>
      <tilted>0</tilted></_>
    <_>
      <rects>
        <_>
          14 10 1 6 -1.</_>
        <_>
          14 12 1 2 3.</_></rects>
      <tilted>0</tilted></_>
    <_>
      <rects>
        <_>
          14 15 4 6 -1.</_>
        <_>
          14 15 2 3 2.</_>
        <_>
          16 18 2 3 2.</_></rects>
      <tilted>0</tilted></_>
    <_>
      <rects>
        <_>
          15 10 2 5 -1.</_>
        <_>
          16 10 1 5 2.</_></rects>
      <tilted>0</tilted></_>
    <_>
      <rects>
        <_>
          15 10 3 5 -1.</_>
        <_>
          16 10 1 5 3.</_></rects>
      <tilted>0</tilted></_>
    <_>
      <rects>
        <_>
          16 10 3 6 -1.</_>
        <_>
          17 10 1 6 3.</_></rects>
      <tilted>0</tilted></_>
    <_>
      <rects>
        <_>
          16 11 3 2 -1.</_>
        <_>
          17 11 1 2 3.</_></rects>
      <tilted>0</tilted></_>
    <_>
      <rects>
        <_>
          16 13 3 3 -1.</_>
        <_>
          17 13 1 3 3.</_></rects>
      <tilted>0</tilted></_>
    <_>
      <rects>
        <_>
          17 8 2 9 -1.</_>
        <_>
          17 11 2 3 3.</_></rects>
      <tilted>0</tilted></_>
    <_>
      <rects>
        <_>
          17 10 3 8 -1.</_>
        <_>
          18 10 1 8 3.</_></rects>
      <tilted>0</tilted></_></features></cascade>
</opencv_storage>
